34 128
34 -0.041136302 -0.046116475 0.158747 -0.1036172 0.01532279 -0.1874158 0.016615171 0.031908378 -0.066078044 0.14479476 0.32605276 -0.039930318 0.010549928 -0.1409608 -0.016376933 -0.14319398 0.15720761 0.1186045 -0.06509285 -0.043286316 0.1453381 0.14921199 0.070608914 0.02242009 -0.06690639 0.05442557 -0.19629526 0.03643181 0.053820044 -0.10397721 -0.32003585 0.09693523 -0.04041348 0.01293155 -0.021441728 0.02540013 0.19923864 -0.057300467 0.1126095 0.003039311 0.1026584 0.03931705 -0.08874693 -0.08497186 -0.06698899 0.06558689 -0.016179997 -0.13649145 0.014227872 0.037829578 0.090852864 0.10022551 0.12049962 0.074147955 0.113654874 -0.009127186 0.05738371 0.035512734 -0.07414523 0.1080347 0.1390196 -0.13534482 0.09746342 0.03062743 0.094032206 -0.11405835 0.09195745 0.10080862 -0.015649648 -0.10735182 0.057974085 -0.03404335 -0.12900811 -0.05360687 -0.018728523 -0.18957928 -0.040709246 -0.1344194 -0.031330775 0.16632773 0.06532924 -0.10739233 -0.00918035 0.3176558 0.11273238 0.19797069 0.15490025 -0.058948506 0.066375025 0.1410102 -0.09776475 0.01766692 -0.026948022 0.088731274 0.15427478 -0.004603883 -0.20414051 -0.27360952 -0.045529842 -0.073166385 -0.10434113 -0.0019068434 0.10064628 0.07132127 0.059242893 -0.12223513 0.025760697 -0.077226944 0.07912341 -0.0989722 0.0109683145 -0.038098928 0.04231003 0.04323851 -0.07837405 0.036836755 0.009627239 0.1405422 -0.017813347 0.041466102 -0.09431439 -0.055968303 0.060231943 0.0038311966 -0.04396274 -0.08603936 -0.039807428 0.05669639
1 0.07962729 0.016644472 0.17329086 -0.16030917 -0.008788741 -0.1905835 0.021498008 0.02798032 0.028051434 0.08833476 0.23867194 0.0016431201 -0.031244872 -0.0034759725 0.13927141 -0.036366533 0.021022793 0.12561357 0.023164183 0.09781081 0.14991698 0.087809555 0.0054268856 0.078837015 -0.18755747 0.19622126 -0.073709324 0.07319924 0.10908107 0.018118454 -0.23824494 0.030886391 -0.014497963 0.084521584 -0.1350812 0.019861 0.24220976 0.167979 0.22912142 -0.08324278 -0.035809048 0.19543011 -0.003299228 -0.06470229 0.02786534 0.03812275 -0.0019445918 -0.11405604 -0.044757914 -0.015959106 0.11664648 -0.067157425 0.13325968 0.10730916 0.11515296 0.07770173 0.07081349 0.012021577 -0.10089702 -0.09878831 0.10146859 -0.11080751 -0.034683987 -0.042303678 0.18334343 -0.097368576 -0.0129872225 -0.024388349 0.0037512307 -0.16207503 0.07015438 -0.010017883 -0.0964475 -0.03014839 -0.09467932 0.004011024 -0.026071148 0.038547892 -0.07036699 0.19592763 -0.04294853 -0.11650452 -0.015308264 0.06294309 0.009787335 -0.04584023 0.15342025 -0.20631059 0.12546253 0.139511 -0.17833212 -0.03805271 -0.12536496 -0.014595541 0.10218661 -0.04371351 -0.18860994 -0.19385473 0.1044547 -0.085949294 -0.25780773 -0.043451574 0.1311946 -0.058391906 -0.08652073 -0.00850131 -0.004372399 -0.112430215 -0.01076489 -0.059434988 0.03074351 0.011590833 0.022963488 -0.004770432 -0.056673955 0.0012685906 -0.09305244 0.15929876 0.09819192 0.06873373 -0.073771276 -0.113850676 -0.0651521 0.0535742 -0.14172238 -0.22700647 -0.084029265 0.0007605514
33 -0.02552612 -0.056675106 0.13026173 -0.10199959 0.027051356 -0.14276306 0.02215429 0.03039896 -0.05905729 0.13491218 0.28503543 -0.055674613 0.0047088834 -0.09286298 0.028040856 -0.13499084 0.15903474 0.1284976 -0.08138209 -0.028567037 0.15209986 0.15585394 0.026457962 0.019691708 -0.09910959 0.0351945 -0.19950026 -0.012376954 0.034904238 -0.07583806 -0.28121606 0.076116025 -0.022871166 0.012069704 -0.043354895 -0.004247821 0.19346854 -0.05038682 0.11981744 -0.006606351 0.10607388 0.067835666 -0.064367175 -0.09135334 -0.1091618 0.06290124 -0.033730585 -0.17193142 0.02858054 0.011922648 0.08044399 0.078934535 0.15781212 0.09601134 0.10585652 0.0136245135 0.036282077 0.047425006 -0.08025607 0.10869753 0.15877223 -0.15309526 0.048521433 0.04118488 0.12614372 -0.14246757 0.05098741 0.09366574 -0.034450267 -0.13916974 0.06785059 -0.031077731 -0.12832698 -0.03494755 -0.015669396 -0.18708691 -0.06938972 -0.11986354 -0.037983354 0.1759571 0.0713578 -0.11904778 -0.011099269 0.28805193 0.092169926 0.16367722 0.14515382 -0.046634205 0.07363632 0.12845875 -0.100346744 0.023049586 -0.08542638 0.08513283 0.16845927 -0.018056652 -0.18643455 -0.22755377 -0.08800122 -0.07910189 -0.083778724 -0.036074325 0.10186033 0.0473677 0.014522204 -0.09288602 0.041709676 -0.05675396 0.09887384 -0.095477335 0.03236272 -0.013245268 0.061326604 0.06221942 -0.08114698 0.041445985 -0.03221357 0.12570134 -0.0044222265 0.028624816 -0.09382652 -0.049089562 0.07027053 0.020506658 -0.039225988 -0.06479995 -1.4136604e-05 0.048557606
3 -0.020426754 -0.052796762 0.15090947 -0.103553966 0.013528185 -0.19053754 -0.017682858 0.004881782 -0.015698606 0.120902054 0.26612428 -0.018705808 0.0033115486 -0.12143896 0.024720395 -0.09870639 0.10060613 0.112417065 -0.010996211 0.013498646 0.10902174 0.10489065 0.030018967 0.052682657 -0.11473695 0.10533708 -0.13302922 0.050468255 0.026516443 -0.073085636 -0.22350596 0.042682163 -0.029951448 0.05904458 -0.020356257 0.06552497 0.2046284 -0.011876465 0.16383137 -0.011815931 0.033262838 0.091592446 -0.067620166 -0.06662517 -0.029285146 0.021545015 0.030370636 -0.10691701 -0.02516454 0.018388022 0.14218304 0.020620367 0.12468068 0.077344485 0.09816376 0.01548242 0.050507788 0.017765615 -0.0980813 0.06833751 0.11789143 -0.1083709 0.07930596 0.0073030596 0.1201144 -0.085715935 0.06442993 0.059264213 0.014941443 -0.122982495 0.07442559 -0.058064327 -0.124595284 -0.059476454 -0.043620948 -0.12745261 -0.02240385 -0.09045846 -0.036183804 0.18954295 0.013590289 -0.1255016 0.006856413 0.22358692 0.050744135 0.09846971 0.16227074 -0.12790246 0.08270877 0.13312453 -0.1118472 0.007511225 -0.040721238 0.05608719 0.16170518 -0.01678466 -0.23567867 -0.28950372 0.034550063 -0.09886489 -0.20463228 -0.051492408 0.124964155 0.024685293 0.009904192 -0.08694792 0.002870148 -0.10431253 0.061774112 -0.08958223 0.009058265 -0.02697658 0.06604385 0.03163735 -0.09787535 -0.0037034266 -0.0436894 0.14704657 0.02699918 0.074548654 -0.10323012 -0.09481705 -0.006385264 0.033495028 -0.082494855 -0.16843101 -0.051308285 0.049202308
2 0.017173389 -0.030164063 0.11767327 -0.12710363 -0.013165275 -0.1774914 -0.010483464 -0.04034997 -0.0022078117 0.0901067 0.19800097 0.012519534 -0.050442528 -0.07365369 0.09323278 -0.043220256 0.05700608 0.08472043 0.06898021 0.07449423 0.056919537 0.043725267 0.0052432767 0.10993605 -0.12316417 0.16825025 -0.04426117 0.07099286 0.059040643 -0.0728827 -0.16275835 0.0049207597 -0.018114334 0.074625134 -0.05167932 0.11582875 0.2007777 0.08353645 0.17584176 -0.037817493 -0.015949076 0.15599243 -0.024161598 -0.050985184 0.050754208 -0.0021693748 0.0424877 -0.084828906 -0.044061277 0.024166077 0.1679475 -0.045861363 0.13102919 0.041104224 0.07254643 0.06179048 0.04339599 -0.01032498 -0.073561065 -0.020610813 0.09774156 -0.053391322 0.029279483 -0.007653728 0.12668602 -0.045000587 0.044868715 -0.026158892 0.020275455 -0.13430153 0.10347024 -0.07468298 -0.10364448 -0.060065173 -0.0780387 -0.018037692 -0.021786967 -0.016893642 -0.045429375 0.2349891 -0.016218713 -0.1381279 -0.01123408 0.11845723 0.0029660873 -0.009063194 0.1756787 -0.22791758 0.123743854 0.12797642 -0.16603272 -0.026009208 -0.03325463 -0.003128263 0.12652974 0.0026608398 -0.26628926 -0.2900425 0.10677233 -0.111777365 -0.29712036 -0.0588851 0.15360257 -0.00044137653 0.019805288 -0.04645759 0.0040730513 -0.16010876 0.026423123 -0.094913386 0.018877886 0.00058929756 0.081806935 -0.030873988 -0.102825135 -0.060615957 -0.07944305 0.16864331 0.076454036 0.12881143 -0.08112985 -0.11392432 -0.11841957 0.06523372 -0.13555783 -0.2568881 -0.09382029 0.02681168
32 -0.014311261 -0.015110619 0.1774876 -0.16153428 0.0473744 -0.115576304 0.04104556 -0.064645246 -0.12380952 0.07902497 0.2598614 -0.08950942 -0.044379033 -0.14129773 0.045068532 -0.16174984 0.1772145 0.08244765 -0.0274752 0.011194755 0.098233275 0.13915831 0.066145845 0.07319329 -0.060229745 0.110633135 -0.16475275 -0.006049319 0.06711211 -0.116251476 -0.2559013 0.12518872 -0.07633366 -0.009824512 -0.005438558 -0.016405974 0.18736012 0.054354515 0.030162618 0.0036273333 0.14977129 0.027970746 -0.037174616 -0.029659338 -0.026950557 0.08205635 -0.010367476 -0.2129274 0.024207583 0.056403052 0.064356886 0.12885836 0.17747888 0.06475909 0.03717866 0.043751955 0.05355354 0.076497585 -0.030443247 0.029418586 0.16938974 -0.14489117 0.12364608 0.027325228 0.08321299 -0.13369113 0.09562727 0.009278953 -0.025766812 -0.10820248 0.08207622 -0.07991963 -0.11270429 -0.008737825 -0.04686619 -0.08639526 -0.089411095 -0.11664581 -0.053651355 0.1938071 0.11412906 -0.11152094 -0.037644014 0.27586377 0.092294835 0.17388652 0.11638413 -0.0633564 0.07447253 0.11899298 -0.18255393 0.005861222 -0.03671551 0.06660742 0.085143514 0.032205008 -0.1727019 -0.14629282 -0.09709083 -0.108959764 -0.115644485 -0.05160133 0.1273019 0.1434586 0.11938892 -0.11501256 0.09930122 -0.16956441 0.068124175 -0.14616954 0.047194224 -0.017151136 0.08583518 -0.049748685 -0.09980273 -0.039333556 -0.015174278 0.123870425 -0.014569575 0.09171318 -0.05216519 -0.026769903 0.011900139 0.035747644 -0.074351735 -0.11691937 -0.080240056 0.089243986
4 0.010516268 -0.052174628 0.13400115 -0.12428542 -0.005073983 -0.21596237 -0.0234772 -0.021631582 0.030107759 0.10945728 0.21568748 0.02496187 -0.04393008 -0.0832263 0.04995947 -0.019794576 0.056285903 0.083343595 0.081550725 0.07680412 0.07518807 0.04737322 0.030416539 0.08678132 -0.13087949 0.16998163 -0.03949387 0.099865384 0.04465011 -0.082426645 -0.14139165 -0.031184075 -0.026556203 0.11699498 -0.05564238 0.15484287 0.23194404 0.038735442 0.22503488 -0.040148884 -0.04144585 0.14529185 -0.028387776 -0.081529066 0.05448683 -0.016124824 0.084016964 -0.056237537 -0.07188531 0.0039053888 0.1962867 -0.05624816 0.1147527 0.059760693 0.10378847 0.02460418 0.05929865 -0.01937345 -0.09544708 -0.013523947 0.10369515 -0.07117655 0.06469 -0.006032363 0.1334369 -0.0188053 0.06381176 0.020118281 0.023846963 -0.11858562 0.11316059 -0.08260278 -0.09951202 -0.057108346 -0.06159579 -0.042524993 7.2277995e-05 -0.04154704 -0.03312999 0.21389236 -0.030392092 -0.1273994 -0.01386325 0.12007035 0.0080985585 -0.0033159612 0.18065104 -0.23504351 0.11113293 0.12803553 -0.109728396 -0.036148977 0.0003573824 -0.01173094 0.16084659 -0.005765302 -0.27566788 -0.34082103 0.13182725 -0.08474872 -0.29725415 -0.030027768 0.13584755 -0.016150601 0.026488874 -0.04870114 -0.044180725 -0.13451579 0.034856927 -0.08509971 -0.022801865 -0.014940022 0.07261374 -0.020069072 -0.08908435 -0.03965595 -0.041159306 0.18497618 0.07972249 0.09611454 -0.10815645 -0.11344375 -0.12564778 0.065961584 -0.12583224 -0.27144513 -0.091106184 0.03569913
24 -0.02764521 -0.0001201082 0.16730662 -0.14959003 0.03702956 -0.12235769 0.0545879 -0.051708624 -0.132034 0.089218475 0.28432485 -0.07718705 -0.029902047 -0.1532445 0.04261467 -0.15890427 0.1775265 0.09848215 -0.031958412 0.016158165 0.12384051 0.14937471 0.0704141 0.062461 -0.056921095 0.10258313 -0.18299465 0.0067850277 0.10025717 -0.11373375 -0.2860993 0.14031509 -0.08080182 -0.027745264 -0.0076728035 -0.019192357 0.18550968 0.056778785 0.029226309 0.00829963 0.15542552 0.018641395 -0.03221719 -0.028430661 -0.026890358 0.1107369 -0.028592853 -0.21440634 0.026954846 0.052535746 0.06176772 0.13944882 0.17499092 0.06848466 0.041780822 0.037912488 0.048616324 0.08483215 -0.028656257 0.008822654 0.17321992 -0.15406346 0.12030921 0.025412193 0.0735557 -0.1454799 0.09836049 0.027115028 -0.023570199 -0.104205035 0.062469956 -0.07946138 -0.11392485 -0.0023314203 -0.039388757 -0.0923873 -0.10032122 -0.12352156 -0.03602527 0.17377938 0.11804969 -0.10252648 -0.034693427 0.2847488 0.12851502 0.1871306 0.09335914 -0.0459556 0.08009411 0.09923822 -0.16697714 0.010484348 -0.01971087 0.091312066 0.06297435 0.03260646 -0.12889652 -0.12289064 -0.08734645 -0.105540015 -0.09319571 -0.022436732 0.11540929 0.13009532 0.10836464 -0.11518207 0.11083323 -0.15824196 0.05876068 -0.14682755 0.052281808 -0.018080922 0.07028236 -0.049444694 -0.07150237 -0.043203942 0.018850291 0.12444149 -0.022470977 0.07241152 -0.055455334 -0.013637836 0.021145433 0.026051506 -0.088720806 -0.11714461 -0.07157603 0.06606564
14 -0.0013866076 -0.04028884 0.11941244 -0.099520825 0.0005576197 -0.1659353 -0.013958892 -0.0053053326 0.02175306 0.115392074 0.22188649 0.0012728054 -0.007592654 -0.07740875 0.04933941 -0.048755676 0.06612388 0.09118928 0.019299228 0.046848778 0.09207614 0.06505215 0.008974572 0.06177272 -0.14093699 0.12176455 -0.08980765 0.061185725 0.034765646 -0.059450753 -0.16608228 0.009730788 -0.025084665 0.07181327 -0.045965068 0.097874664 0.21570265 0.029281337 0.20252252 -0.036373843 -0.010797568 0.1351202 -0.048251256 -0.08147919 0.004648656 0.006011042 0.044640906 -0.08498116 -0.043854997 0.014250715 0.16637215 -0.02054945 0.12809157 0.060633153 0.10048096 0.035493612 0.055907417 0.012510102 -0.101223364 0.02745583 0.10261506 -0.08996696 0.038179632 0.008243978 0.1470744 -0.06575149 0.05235159 0.028491512 0.015164892 -0.13516074 0.08537382 -0.050696928 -0.11539712 -0.053387873 -0.044321667 -0.09379174 -0.002659307 -0.052183032 -0.032904137 0.2113563 -0.00081881636 -0.13017577 -0.0035792822 0.16893113 0.029633129 0.04398255 0.17032537 -0.17813356 0.10153543 0.12165483 -0.11400007 -0.017794088 -0.042747036 0.019743625 0.15876639 -0.022283453 -0.25332966 -0.31124762 0.0669277 -0.09544045 -0.25247946 -0.049403153 0.13455565 0.0029926985 0.009040744 -0.068725 -0.01594546 -0.1209652 0.065658875 -0.08352949 0.0039875205 -0.014452391 0.077799 0.019616837 -0.10180775 -0.011852133 -0.056529038 0.17259231 0.058092095 0.093727484 -0.09645259 -0.104367934 -0.04665397 0.052251264 -0.10297469 -0.19971474 -0.06597455 0.029741019
7 0.24747418 0.08366351 0.22960238 -0.22587685 -0.007015812 -0.18334861 0.06352355 0.103977725 -0.019704571 -0.013571467 0.15751688 -0.1147898 -0.12272133 0.1959081 0.3518662 -0.050732743 0.01008682 0.117653616 -0.062203933 0.17130046 0.20826378 0.123102695 -0.059985887 0.1414568 -0.24398097 0.2352388 -0.06547951 -0.0048697796 0.08437527 0.10446826 -0.31648323 0.04133831 0.08088066 0.024810784 -0.21012168 -0.15553942 0.22326922 0.31107306 0.14751714 -0.111557476 -0.09495878 0.28338364 0.05743633 -0.004671426 -0.036317572 0.05504995 -0.103944495 -0.11993702 0.036561634 0.0049920385 -0.056093592 -0.046109535 0.24725507 0.16544224 0.087825336 0.2045598 0.071578205 0.09076573 -0.090485565 -0.15114513 0.064538516 -0.12179019 -0.17111936 -0.10415529 0.25380328 -0.12177617 -0.12292077 -0.14650217 -0.075483166 -0.18682437 0.08461038 0.03920515 -0.08975207 -0.036944043 -0.11810647 0.08889887 -0.13902113 0.11243512 -0.19701539 0.19250342 0.011448575 -0.18518712 -0.017983602 0.0004961566 -0.07140058 -0.15395182 0.14250106 -0.19169419 0.10461871 0.1651354 -0.3167583 -0.03816444 -0.30090043 -0.017214796 0.075036086 -0.019016903 -0.21090938 -0.018299328 0.02523684 -0.16578242 -0.22215228 -0.15365379 0.11528011 -0.051627275 -0.1982131 0.093391374 0.092714116 -0.04728149 -0.12199921 -0.06400127 0.087138325 0.06440269 -0.019397028 -0.027029848 -0.036875993 0.011275631 -0.23351115 0.083704405 0.16048317 0.08194194 -0.025726046 -0.17038585 -0.017958922 0.05935854 -0.11421086 -0.19905716 -0.0049265907 0.00423803
28 -0.06068257 -0.031225026 0.15649112 -0.13977969 0.052617464 -0.089647405 0.047750767 -0.12004227 -0.12787615 0.08358511 0.2559005 -0.07465742 -0.024765564 -0.20096911 0.012571462 -0.15325801 0.19364263 0.08375863 0.015655931 0.011445185 0.06841719 0.14233556 0.06585174 0.065664575 -0.055409055 0.10311718 -0.1676962 -0.013925088 0.06128289 -0.1370839 -0.21011628 0.11933114 -0.1055564 -0.010932943 0.036251713 0.02659389 0.19008316 0.030292833 0.029811023 -0.001713609 0.17949438 0.01429114 -0.043685872 -0.028312435 -0.0007678535 0.08321367 0.0097312145 -0.24772069 0.006530305 0.061331358 0.12785502 0.13004342 0.18220596 0.045318656 0.024983622 0.017824406 0.043636877 0.08501535 -0.03450617 0.026074622 0.18599512 -0.15457265 0.17129113 0.04075115 0.059047952 -0.14939892 0.122047275 0.029843949 0.007492841 -0.10294718 0.092713065 -0.10576626 -0.11980156 0.012085119 -0.04845651 -0.07585205 -0.07029115 -0.1383469 -0.02361158 0.19936855 0.12458508 -0.09132388 -0.036381546 0.29174283 0.113161296 0.17759049 0.110486545 -0.06853274 0.08604782 0.09103985 -0.1535986 0.004564698 -0.0030330492 0.068876974 0.102064855 0.041951872 -0.15471646 -0.14882481 -0.09111049 -0.112568095 -0.1180872 -0.053714015 0.14312088 0.1557337 0.15590896 -0.13089055 0.106899455 -0.18541618 0.09620242 -0.16424106 0.057787534 -0.023930054 0.10523867 -0.05616281 -0.123754546 -0.06939026 0.025307707 0.13263741 -0.030513847 0.11651931 -0.051791072 0.0058513638 -0.0071699163 0.035111655 -0.078416795 -0.14049378 -0.10602058 0.098535456
6 0.2493145 0.09055921 0.21800037 -0.20326184 -0.01831285 -0.17256443 0.06999316 0.1199368 -0.017361285 -0.023074348 0.13895307 -0.12755662 -0.10275868 0.18808453 0.3448804 -0.059159365 0.0020179073 0.10312314 -0.06207654 0.15407038 0.2087148 0.11192168 -0.06208338 0.13571069 -0.22236396 0.21076246 -0.052655816 0.009411359 0.1078157 0.10211125 -0.30834222 0.055615786 0.076269455 0.0058844658 -0.20743747 -0.15597169 0.21581595 0.3262029 0.13893041 -0.10878683 -0.08124482 0.2603912 0.056290008 0.021043427 -0.014642614 0.07116967 -0.10126496 -0.09971601 0.047173314 0.013508293 -0.08662194 -0.022974038 0.23915598 0.15557073 0.100746095 0.20448121 0.06813579 0.10837443 -0.08696012 -0.15995465 0.06762644 -0.11926597 -0.1596259 -0.091442645 0.2700359 -0.13767923 -0.12976603 -0.16445175 -0.064709194 -0.19230698 0.08378799 0.043218296 -0.11131885 -0.032730617 -0.11470428 0.068677664 -0.1411717 0.10953039 -0.18512516 0.20742679 0.02201948 -0.18936233 -0.014545198 0.018652154 -0.038632598 -0.11561839 0.14385396 -0.19831088 0.11273924 0.16736805 -0.33356476 -0.0328372 -0.28619942 0.006497753 0.05206021 -0.0054814843 -0.21163826 -0.024732802 0.010958007 -0.15183951 -0.22718742 -0.12931414 0.11189716 -0.041614838 -0.19776116 0.089722216 0.08227586 -0.06872473 -0.122598015 -0.05616012 0.08092719 0.058130007 -0.021065757 -0.025069546 -0.053500544 0.0149651375 -0.22191817 0.10366448 0.15542272 0.093260676 -0.035901494 -0.1836912 -0.020397238 0.06341636 -0.13189653 -0.21592924 -0.0072950306 0.007702489
9 0.002953492 -0.059710786 0.124218285 -0.09065691 0.022001253 -0.12857011 -0.006088704 0.009289613 -0.02015951 0.10183144 0.22675474 -0.062184114 0.0076228227 -0.10246896 0.024050575 -0.111160174 0.12250411 0.10472066 -0.043753378 -0.002032178 0.13085067 0.107946664 0.04023483 0.036259238 -0.10479449 0.06267991 -0.15634471 -0.006577271 0.048898984 -0.07319977 -0.21887577 0.075972155 -0.03124258 0.032602616 -0.033633877 0.021581009 0.20980386 -0.006720503 0.13758074 -0.013649528 0.07536815 0.08549896 -0.05715423 -0.08665052 -0.061998293 0.034397595 -0.00044448912 -0.16525508 0.0012342227 0.021070885 0.100021444 0.030931907 0.15456995 0.108807795 0.08738468 0.032282896 0.037176568 0.046681654 -0.1098674 0.07413393 0.1435493 -0.1340972 0.07493076 0.03406985 0.13625152 -0.12459961 0.06293239 0.05361359 -0.000800932 -0.14408426 0.074913956 -0.043924343 -0.13353427 -0.024579454 -0.029642532 -0.14814691 -0.04817313 -0.099359386 -0.040139582 0.19259207 0.05120068 -0.123593226 -0.003442757 0.24388018 0.082344405 0.14117564 0.14337617 -0.08500736 0.07993254 0.13218951 -0.11554654 0.0060273292 -0.069033735 0.064062715 0.17380203 -0.012755197 -0.20283839 -0.2341964 -0.04095581 -0.08298073 -0.14062904 -0.050453104 0.108907014 0.03846617 0.021031784 -0.095050484 0.02210695 -0.084082186 0.09142287 -0.09999307 0.017686766 -0.024484638 0.08519454 0.052819755 -0.09841118 0.012452487 -0.035674307 0.14754291 0.026266877 0.073343664 -0.08962327 -0.0836639 0.02368331 0.03278459 -0.055433355 -0.12070772 -0.039532747 0.055532306
30 -0.01584898 -0.03629174 0.16493309 -0.118618175 0.056611937 -0.082167275 0.038943015 0.012578164 -0.079252414 0.09571065 0.2911903 -0.12778111 0.028965106 -0.12029306 0.030963473 -0.19723757 0.17897853 0.119783476 -0.12155952 -0.045814388 0.1677755 0.17357434 0.042784404 -0.0061621857 -0.118259974 0.043371785 -0.23694836 -0.063373975 0.0692188 -0.05461653 -0.29145658 0.15846068 -0.08585721 -0.019993486 -0.028410742 -0.07006557 0.20964046 0.008521703 0.07544312 -0.032402597 0.1787524 0.06254191 -0.06205817 -0.08464591 -0.118931465 0.08333264 -0.067800604 -0.2972679 0.063406244 0.026275363 0.06598691 0.105854444 0.19367759 0.14115919 0.08644038 0.022554746 0.04788819 0.10139909 -0.10539887 0.08753281 0.18670492 -0.21821417 0.08921396 0.03408929 0.12682512 -0.18774256 0.06284523 0.08453762 -0.02613404 -0.15084584 0.053824287 -0.02683339 -0.15357284 0.0133560365 -0.004089321 -0.17953494 -0.06250332 -0.14819986 -0.028490733 0.1708069 0.10810173 -0.1079405 -0.0047860513 0.31566387 0.12048159 0.19905367 0.117102295 0.030478517 0.06762594 0.101072416 -0.1070013 0.019966008 -0.12267016 0.10181737 0.16480418 -0.016622022 -0.14172937 -0.13511068 -0.1822892 -0.07623029 -0.030198611 -0.046979055 0.09754392 0.11350273 0.061906215 -0.11843414 0.086720124 -0.10201108 0.11748333 -0.107801534 0.06936709 -0.019750793 0.086657465 0.06581562 -0.08675845 0.059902776 -0.023148503 0.12127736 -0.005250674 0.041083097 -0.051802855 -0.00960288 0.14056505 0.014179592 -0.0066668694 -0.022311887 -0.018385885 0.076766096
8 0.03301842 -0.027767936 0.13274106 -0.111646615 -0.008470066 -0.1882506 0.007376353 -0.0188002 0.010492538 0.087068975 0.19433933 -0.007094112 -0.037968792 -0.055565685 0.09913 -0.028864985 0.059124254 0.06887455 0.041875448 0.06847355 0.077393815 0.07599859 0.0063895225 0.09447708 -0.12859273 0.15886007 -0.042121425 0.0851672 0.04287834 -0.06686822 -0.16503733 -0.015975885 -0.005519819 0.07215287 -0.06963684 0.10693286 0.22621301 0.064036325 0.19710065 -0.039030116 -0.03414288 0.13846079 -0.017369824 -0.05554318 0.031412795 0.01027091 0.048260063 -0.06625315 -0.04092482 0.015279863 0.15649728 -0.017575575 0.14150289 0.053849597 0.08971278 0.052831676 0.06585127 0.0076360973 -0.090939224 -0.013576446 0.096005015 -0.07958322 0.033120185 -0.0023364953 0.14903556 -0.051993992 0.04667863 -0.011086818 0.002285902 -0.124529704 0.11766288 -0.05523877 -0.12210167 -0.04709394 -0.0531266 -0.048708353 -0.025501207 -0.03721134 -0.046606332 0.21862598 0.0081578335 -0.13707122 -0.011243446 0.13952586 0.005725036 0.01574753 0.16875067 -0.21447498 0.106361136 0.12770045 -0.14689586 -0.022064865 -0.03334922 0.011615357 0.14826088 0.0056083035 -0.28273407 -0.31373137 0.083280124 -0.10925899 -0.2596474 -0.04739288 0.1413998 0.013242279 0.017090708 -0.048693217 -0.0006104729 -0.12889212 0.032230146 -0.076469064 0.0059335222 0.00018464262 0.06654575 -0.010128954 -0.091113105 -0.032149404 -0.06620196 0.1658044 0.067729674 0.10195863 -0.083463736 -0.110635705 -0.08687705 0.06902104 -0.10622537 -0.24569145 -0.077313304 0.0357384
31 -0.013521295 -0.037966274 0.11985093 -0.09314269 0.0074922694 -0.1329681 0.0035024574 -0.002745382 -0.020732194 0.11932727 0.24233481 -0.03937447 0.003618381 -0.08728011 0.030160995 -0.08409512 0.100112654 0.0956343 -0.032513518 0.0047592213 0.12263125 0.11769315 0.027481306 0.045799673 -0.11513823 0.07863576 -0.14077483 0.02260001 0.040022068 -0.061824564 -0.205149 0.0443583 -0.0366553 0.031396918 -0.039028022 0.035318047 0.2099984 0.0007214877 0.15885688 -0.020383796 0.045476228 0.07375604 -0.045034066 -0.07554644 -0.04895237 0.04012192 0.0077435365 -0.124584004 -0.012202589 0.0062810066 0.119281836 0.031270348 0.14483908 0.08302434 0.08984183 0.026062913 0.053234108 0.044064526 -0.10139743 0.0535995 0.1320596 -0.1321939 0.055264004 0.023594031 0.14233476 -0.113371894 0.05045085 0.05150305 -0.005925876 -0.14376865 0.074475564 -0.042505592 -0.13062178 -0.026936002 -0.033595737 -0.13923831 -0.046595182 -0.087079495 -0.029832574 0.18691999 0.045140278 -0.12180598 -0.009390355 0.23165584 0.069454096 0.12092687 0.13796364 -0.106034316 0.086337045 0.12234951 -0.11159336 0.0076242015 -0.049013406 0.063591674 0.1543852 -0.020977164 -0.20173799 -0.24235386 -0.017831042 -0.08464205 -0.16060044 -0.03814598 0.108707435 0.03541727 0.0048466697 -0.08698712 0.021266501 -0.08803682 0.07284745 -0.09321425 0.019885276 -0.02626364 0.07424236 0.041775014 -0.08835399 0.013592867 -0.03621616 0.16334705 0.031153835 0.058857013 -0.09332626 -0.08233198 0.0064808284 0.04583769 -0.080608174 -0.15280452 -0.04893743 0.035657015
5 0.2085049 0.08284043 0.19942395 -0.18194914 -0.008100132 -0.17411882 0.061386682 0.119240314 -0.012167932 0.0057744137 0.14558043 -0.10508062 -0.08667049 0.15715516 0.31209597 -0.057883363 0.009396918 0.10738689 -0.05503385 0.13100964 0.19597858 0.1109805 -0.051292937 0.12271658 -0.21948831 0.19491275 -0.045559973 0.03545784 0.08643337 0.09065101 -0.28067914 0.028230198 0.057359032 0.020615527 -0.20351875 -0.13056609 0.20381336 0.2789445 0.16816305 -0.10695222 -0.07227663 0.24409626 0.029476352 0.011622361 -0.02151499 0.0775897 -0.07327424 -0.08584539 0.027262673 -0.0009845021 -0.06337033 -0.028298534 0.22602597 0.1489339 0.11886878 0.17135674 0.059101425 0.09530715 -0.08954823 -0.13007371 0.072520204 -0.10426499 -0.13436532 -0.06735797 0.2617702 -0.13695018 -0.1254333 -0.12936649 -0.05161976 -0.18896092 0.07934039 0.044832535 -0.11133353 -0.04617562 -0.11661992 0.043808047 -0.12862784 0.09563343 -0.17659727 0.21053012 0.017263703 -0.17801471 -0.012520794 0.03638573 -0.02475712 -0.10474783 0.1559456 -0.20446853 0.11287019 0.15460262 -0.30181032 -0.04104441 -0.2572771 0.008617473 0.056820437 -0.02297293 -0.20968848 -0.06460978 0.027670665 -0.14172904 -0.23058446 -0.12246977 0.11729024 -0.039264098 -0.19752699 0.07170121 0.057142768 -0.066576906 -0.08967255 -0.050064143 0.061259024 0.04329268 -0.015451214 -0.008341107 -0.07529355 0.029048925 -0.2059119 0.12255817 0.15595286 0.085101716 -0.0640785 -0.17560716 -0.014410032 0.07484611 -0.14008582 -0.23461162 -0.002865612 0.0007611701
11 0.18101309 0.074724674 0.20948207 -0.17782658 -0.014501128 -0.1906721 0.06888157 0.08036126 -0.03677114 0.020300733 0.16913787 -0.08833875 -0.100790575 0.123751424 0.28868142 -0.05913221 0.035786882 0.09399447 -0.042545903 0.13396418 0.15328348 0.1194322 -0.0525873 0.13431004 -0.19431901 0.20080194 -0.049540617 0.04430297 0.07765937 0.048312735 -0.28639746 0.040281817 0.047420174 0.016576754 -0.1799954 -0.10445868 0.20534618 0.24611785 0.1480885 -0.07515993 -0.07148668 0.22005273 0.047450714 0.0032268106 -0.014111646 0.06203814 -0.07640975 -0.07418119 0.02569661 0.023949148 -0.035873726 -0.014304772 0.2159521 0.114532314 0.07527327 0.15524246 0.053617384 0.065871075 -0.06508099 -0.10002298 0.07877404 -0.09826132 -0.12712136 -0.06594783 0.2241809 -0.11937695 -0.10406282 -0.1219324 -0.063392326 -0.1676905 0.08707241 0.01582831 -0.10104614 -0.053749993 -0.0930283 0.034900103 -0.12665173 0.07435628 -0.15768115 0.2102965 0.008432822 -0.18103379 -0.020077733 0.047781378 -0.048563637 -0.08945027 0.15088934 -0.18494385 0.11720825 0.1608974 -0.28853002 -0.036137942 -0.21796857 0.012518425 0.050291386 -0.004321903 -0.21649975 -0.095006585 0.025632752 -0.14064267 -0.23521852 -0.121672265 0.11870125 -0.016176982 -0.15030377 0.051501572 0.080304645 -0.07951061 -0.08671455 -0.053868048 0.06814981 0.046427265 0.016683452 -0.029515397 -0.05974124 -0.0077454136 -0.19073813 0.11880098 0.12520427 0.06885276 -0.04946055 -0.15759028 -0.03390913 0.07206291 -0.13076724 -0.21769686 -0.008558763 0.0063420464
20 0.033966735 -0.020230021 0.13561298 -0.12922752 0.007542826 -0.1567815 0.008083767 -0.009032204 -0.007705876 0.07585855 0.19601698 -0.03054136 -0.02808091 -0.048122805 0.11411581 -0.057278786 0.07970668 0.08537037 0.015739255 0.051620714 0.089536645 0.0922397 -0.0028676325 0.081403434 -0.13010654 0.13385274 -0.066951744 0.03810854 0.036560975 -0.04104236 -0.17627867 0.013014185 -0.006855812 0.05361669 -0.07455703 0.04513787 0.2094279 0.08591203 0.1623076 -0.051149514 0.0032753628 0.12198412 -0.01935651 -0.046507366 -0.0034714807 0.021137875 0.018018479 -0.10510948 -0.017908765 0.018800465 0.10523044 -0.006280164 0.15871957 0.08595756 0.08330723 0.05708769 0.048501596 0.035472862 -0.09043865 -0.004053208 0.10690788 -0.09433086 0.019637007 -0.019899955 0.15798432 -0.085845105 0.0147051215 -0.015304356 -0.013080008 -0.14559965 0.10193504 -0.049303055 -0.11345576 -0.033929575 -0.06597847 -0.051306263 -0.053257078 -0.037768114 -0.066824965 0.21177058 0.020638434 -0.13669598 -0.019106114 0.1540291 0.014031869 0.02922418 0.15587799 -0.18033725 0.09941175 0.122333884 -0.17634699 -0.010311055 -0.07556766 0.025497895 0.13109934 0.0020158133 -0.22933297 -0.22117905 0.032824494 -0.113980636 -0.23163904 -0.082067 0.1402094 0.018309435 -0.017602224 -0.051343456 0.024545243 -0.11307247 0.028646197 -0.08604542 0.022747234 0.006526713 0.06891262 0.0057319375 -0.10323368 -0.021569049 -0.09094815 0.14777815 0.05881009 0.09584064 -0.082538664 -0.110238194 -0.045830216 0.055487923 -0.10247325 -0.21201034 -0.051062807 0.045603164
25 -0.058112174 0.01244159 0.1606694 -0.1742972 0.06325545 -0.111241736 0.08481519 -0.13871069 -0.15711324 0.08221147 0.26679555 -0.0716821 -0.044299845 -0.20495816 0.048781704 -0.14753877 0.20126832 0.067340106 0.04600791 0.03976042 0.063179046 0.1471421 0.08699946 0.11013783 -0.018901167 0.15230945 -0.12606138 0.03338332 0.1172032 -0.15177022 -0.21632703 0.12490118 -0.11819256 -0.023345476 -0.003314091 0.018358178 0.17537995 0.08528962 0.006749636 -0.002875292 0.17975572 -0.0046229996 -0.01031279 -0.007465064 0.032354888 0.1166815 0.0011979047 -0.21754001 0.02238464 0.07171329 0.100917466 0.15757865 0.18872604 0.020096954 -0.010531823 0.03837694 0.05452034 0.08860247 0.008112855 -0.037260406 0.18563578 -0.12970378 0.16536488 0.01764146 0.06076151 -0.14473766 0.13260175 -0.018078707 0.008521819 -0.067305356 0.0913192 -0.11437053 -0.108683534 0.021600531 -0.069414936 -0.040781733 -0.102044776 -0.11221669 -0.028248634 0.23099294 0.13663843 -0.09738061 -0.08158043 0.28427267 0.13225538 0.18079269 0.089444995 -0.098475136 0.090880446 0.07864129 -0.180464 -0.017962104 0.035472896 0.061618064 0.022375546 0.04503152 -0.13239382 -0.1237273 -0.086713 -0.110811934 -0.14517556 -0.03537508 0.14232764 0.19381225 0.19073656 -0.13953894 0.13185292 -0.24944977 0.068903066 -0.17532206 0.071018666 -0.03288859 0.09669979 -0.11590996 -0.114590794 -0.112969816 0.03218574 0.15036486 -0.03159449 0.10648039 -0.0671973 0.013175294 -0.04116484 0.04940539 -0.13164629 -0.1854352 -0.14600985 0.08465963
26 -0.060681753 -0.015550633 0.17272276 -0.15178216 0.057979602 -0.113301404 0.07207779 -0.118737385 -0.14739259 0.09653109 0.28622085 -0.06994979 -0.03716338 -0.20125093 0.018604876 -0.15774567 0.18925898 0.09170414 0.015290231 0.01647756 0.089467846 0.1601719 0.07739146 0.0759559 -0.053176403 0.12472451 -0.16225332 0.02578062 0.089088425 -0.1385349 -0.249333 0.12614273 -0.10484569 -0.014210664 0.010665799 0.017566914 0.18622126 0.045600113 0.026309777 0.0018184587 0.16957071 0.0038138218 -0.044364795 -0.02256336 0.009683953 0.09989636 0.004867634 -0.23302375 0.0027993321 0.06873562 0.12369947 0.15090755 0.17908597 0.03438673 0.018552957 0.011134959 0.06363471 0.072443716 -0.019099656 0.0025135516 0.19637845 -0.15728022 0.17295265 0.023314534 0.044293124 -0.15163474 0.12263097 0.038709167 0.0017665321 -0.080619164 0.089422114 -0.09461433 -0.10971592 0.015550576 -0.046645828 -0.0705218 -0.08104796 -0.13490357 -0.013304289 0.1863122 0.12200624 -0.08816144 -0.048289746 0.28678375 0.120582305 0.17571624 0.103887245 -0.06913821 0.09158976 0.08440705 -0.13605402 0.0020823558 0.021672267 0.072384566 0.06705745 0.04337051 -0.13719402 -0.15736865 -0.09083573 -0.10802616 -0.10802259 -0.024218088 0.12625314 0.15458468 0.15797228 -0.13360032 0.1112629 -0.19689706 0.07539675 -0.14773989 0.056654014 -0.034806628 0.08609826 -0.07021183 -0.105042584 -0.07573582 0.049794227 0.14128521 -0.034682415 0.09577493 -0.053147733 0.019089945 -0.009342018 0.03894476 -0.09028732 -0.1411892 -0.12145557 0.0945701
29 -0.019945797 -0.037468635 0.14825182 -0.12566721 0.0287883 -0.13039339 0.011212273 -0.0393155 -0.0376763 0.103407964 0.24536963 -0.045171067 0.00354486 -0.11201644 0.02700098 -0.10487757 0.12964249 0.10605984 -0.015999699 0.00893888 0.1193871 0.12611482 0.04300944 0.03719846 -0.10083146 0.09558588 -0.15237889 -0.0031582685 0.06235815 -0.07604305 -0.2068913 0.08091355 -0.059838183 0.03421035 -0.029070262 0.026811933 0.20957093 0.016762223 0.11542872 -0.023149777 0.082515374 0.07116903 -0.03357405 -0.07738036 -0.04602552 0.045422416 -0.0059127547 -0.18857107 -0.0016824615 0.023120016 0.12881006 0.048170246 0.14705387 0.085592106 0.057710465 0.027703067 0.045865946 0.052651525 -0.08828216 0.03447834 0.15207478 -0.14053963 0.07814065 0.007745175 0.12487565 -0.13061292 0.07470537 0.04563606 0.008351193 -0.12634166 0.07407241 -0.052113216 -0.12972103 -0.010606504 -0.036061775 -0.114419 -0.052832544 -0.09615822 -0.033766974 0.19150642 0.057630975 -0.11237843 -0.015427967 0.24117254 0.08332033 0.122076444 0.12363016 -0.09600632 0.07744405 0.10934681 -0.120365374 -0.0005970117 -0.057578493 0.05299412 0.14473279 -0.009694632 -0.17042439 -0.20782034 -0.049731705 -0.08897792 -0.14734982 -0.04567327 0.12629104 0.06442608 0.04949488 -0.10477883 0.05095753 -0.1256889 0.085359156 -0.11019415 0.036812074 -0.024839003 0.08715598 0.018634072 -0.09876025 -0.008671295 -0.029725386 0.14908366 0.017747981 0.066342175 -0.07783162 -0.048234463 0.010887689 0.03266008 -0.06868675 -0.12861893 -0.078240484 0.06301402
17 0.25167772 0.09220467 0.24434096 -0.21088627 -0.007924092 -0.20166108 0.080050975 0.13614188 0.0039240853 -0.004819323 0.15992993 -0.090976864 -0.10114141 0.19006512 0.3478727 -0.041151553 0.0038297 0.10465867 -0.051706567 0.15615754 0.21057858 0.114971675 -0.065078616 0.1286468 -0.25813252 0.25001815 -0.031657666 0.042499203 0.10415445 0.11870922 -0.3090608 0.023476362 0.06521979 0.050785057 -0.24907584 -0.14452852 0.2231758 0.31609684 0.198035 -0.13526961 -0.09839184 0.29302236 0.030760042 0.00792619 -0.000960474 0.05696088 -0.08748154 -0.09338302 0.007968896 -0.012168375 -0.060411356 -0.06298725 0.23214824 0.16879065 0.12112853 0.17112873 0.08080987 0.08600367 -0.09552957 -0.16595328 0.0671403 -0.118239745 -0.1727159 -0.089044645 0.2729072 -0.14234376 -0.15961969 -0.1402998 -0.06594921 -0.20474112 0.09275576 0.05453761 -0.10418784 -0.052276693 -0.12804115 0.08456692 -0.12259417 0.116305165 -0.1883733 0.19987231 -0.029722327 -0.19016558 -0.0045094313 0.0011902162 -0.07063162 -0.16460414 0.16396357 -0.22849292 0.13642693 0.17681557 -0.32453492 -0.056010637 -0.2955589 -0.015627613 0.04771646 -0.037820812 -0.20777225 -0.05343852 0.059108835 -0.1394877 -0.24539486 -0.12637423 0.10835369 -0.07200494 -0.22056271 0.0933433 0.046958588 -0.061387222 -0.10382848 -0.02044311 0.065605566 0.060366437 -0.02697521 -0.01882864 -0.07112654 0.04063202 -0.2288996 0.12495534 0.18083267 0.07112723 -0.05344168 -0.199634 -0.021883147 0.08351633 -0.16157226 -0.25034982 -0.015806817 -0.00087256683
13 0.046264734 -0.031011557 0.13866228 -0.12328967 -0.0029001664 -0.18995108 0.0031977938 -0.017159276 0.0042141085 0.08795547 0.17735627 -0.017966706 -0.04588154 -0.027384136 0.116487235 -0.031879153 0.06081501 0.072276816 0.051036734 0.09513161 0.08242648 0.06307348 -0.0018470966 0.10046285 -0.14967792 0.1690766 -0.04618956 0.07173556 0.031833343 -0.062168226 -0.16062126 -0.014889533 0.00013944745 0.08860382 -0.066063136 0.09588348 0.21166988 0.072565 0.17758268 -0.038394574 -0.046243478 0.1594289 -0.012531066 -0.046314925 0.030630473 -0.004853862 0.043606985 -0.0528987 -0.03781801 0.020057451 0.1500052 -0.030581431 0.14974752 0.051552612 0.0731737 0.06683656 0.05124092 0.015326443 -0.08562304 -0.011622154 0.090436205 -0.07521491 0.027826732 -0.008437755 0.15877625 -0.04806246 0.031709995 -0.028037647 0.00901341 -0.14061348 0.11138093 -0.06661483 -0.111889906 -0.05850663 -0.05354141 -0.041088045 -0.02026022 -0.041239932 -0.064739704 0.2230129 -0.0016283044 -0.14309472 -0.016645772 0.12109894 -0.013298273 -0.021136953 0.17848758 -0.21616413 0.111509204 0.12505415 -0.14587462 -0.036265757 -0.04754538 0.002675864 0.14668222 0.008742252 -0.28309542 -0.2990703 0.08309967 -0.1091934 -0.2780915 -0.0757758 0.15092841 0.002180474 0.0019886417 -0.031500064 -0.0066124895 -0.120881565 0.03187811 -0.07367182 0.003237919 -0.00023787214 0.081765085 -0.022504542 -0.11138607 -0.031028239 -0.07164652 0.16210474 0.08509664 0.10718406 -0.091368854 -0.12030377 -0.09657057 0.07182845 -0.11350082 -0.24695987 -0.079763144 0.040202018
10 0.004039224 -0.05165459 0.15324526 -0.11439043 0.02026627 -0.13057649 -0.0008163594 -0.01555263 -0.012567619 0.100505844 0.22682025 -0.033761244 -0.0017846422 -0.099685535 0.028093703 -0.09321248 0.10273638 0.10690602 -0.017167296 0.022447234 0.13089876 0.10214887 0.045617525 0.043353412 -0.13042831 0.09808165 -0.14694384 0.0054219156 0.057032887 -0.07015147 -0.1955876 0.06574361 -0.04618738 0.04959001 -0.046021342 0.026545772 0.22617355 0.013385975 0.16118214 -0.032713007 0.06513619 0.116689004 -0.04922553 -0.09413756 -0.039372306 0.028667992 0.02142895 -0.16993597 -0.014403524 0.0047902847 0.1428468 0.004933568 0.14926775 0.10047385 0.075786114 0.040914387 0.047450453 0.04644467 -0.10814568 0.038853258 0.14667368 -0.14331727 0.06500414 0.027173815 0.141644 -0.120146826 0.06275514 0.049737938 0.018368594 -0.14873528 0.07914898 -0.04906163 -0.115931 -0.014626573 -0.03903938 -0.10872561 -0.027120413 -0.09015864 -0.020871727 0.19136374 0.038787372 -0.11494055 -0.011404199 0.20646442 0.058504134 0.10509356 0.13452743 -0.1031511 0.086162135 0.11850792 -0.10171896 0.0016090521 -0.05373003 0.035162337 0.16155897 -0.028597364 -0.1861584 -0.2274744 -0.012645019 -0.07830377 -0.17468332 -0.04397445 0.12490152 0.026526377 0.012267775 -0.08524412 0.017037503 -0.097809345 0.09185609 -0.09849808 0.025389817 -0.03288712 0.076583676 0.039831806 -0.09529551 -0.0026434008 -0.026083302 0.15936266 0.045530494 0.068799265 -0.0955545 -0.078232944 0.0060749254 0.028628262 -0.08588957 -0.14088215 -0.0734375 0.035170387
23 -0.04368999 -0.082733214 0.15285173 -0.13431726 0.040007465 -0.12584884 0.0055440567 -0.029431455 -0.0614447 0.11773093 0.30643272 -0.054514647 -0.010604396 -0.15394035 -0.00793335 -0.14641632 0.16961227 0.113491766 -0.03971192 -0.039815553 0.12325318 0.14506556 0.06368371 0.015279856 -0.08604494 0.05843078 -0.19772409 -0.008565355 0.041847527 -0.09733046 -0.24846523 0.087931775 -0.05941167 0.018494496 0.00017206513 0.011178662 0.20332779 -0.04958489 0.10408776 -0.0031962825 0.14427648 0.028014762 -0.07967548 -0.09519096 -0.06241306 0.04102347 0.011218302 -0.22336061 0.0043210983 0.028488155 0.12049821 0.08103803 0.1624383 0.114618436 0.09465861 -0.0017467099 0.046951663 0.06510292 -0.09510032 0.10842879 0.18451194 -0.17671962 0.131063 0.05443404 0.09632451 -0.14009623 0.094712906 0.10010552 -0.029688878 -0.13824393 0.087588824 -0.081557356 -0.116090514 -0.012334826 -0.017919619 -0.17413199 -0.0583205 -0.15200067 -0.019822685 0.15812786 0.09163928 -0.1023237 -0.015789302 0.3061884 0.11449294 0.19640647 0.12495038 -0.04489701 0.0710267 0.12435373 -0.11195816 0.02666993 -0.039519895 0.08143 0.17399965 0.0034704495 -0.15602882 -0.20521381 -0.08541078 -0.081286035 -0.075474985 -0.029378846 0.09844391 0.08454792 0.0747236 -0.12146654 0.043645956 -0.08936411 0.10604097 -0.12622805 0.019456811 -0.018703502 0.07938858 0.04825336 -0.093061954 0.017731853 0.00887197 0.1208982 -0.01635019 0.059989464 -0.0876216 -0.02880327 0.04469772 0.0354831 -0.035703305 -0.090463735 -0.04180056 0.06674734
18 0.025066443 -0.032863423 0.11358987 -0.1050587 -0.02196179 -0.19730133 -0.021022711 -0.005028188 0.024180098 0.107846364 0.19269325 0.014079819 -0.03831724 -0.05306098 0.07421984 -0.00549742 0.046419874 0.07728106 0.048564777 0.06832222 0.071663074 0.051637255 0.0019295122 0.09813849 -0.13102849 0.12805207 -0.04346971 0.08910928 0.024216775 -0.066747956 -0.14464718 -0.03315299 0.0041567525 0.08015062 -0.062162768 0.12281478 0.22228624 0.039981592 0.21719322 -0.028245276 -0.05605925 0.13045982 -0.014433206 -0.06574605 0.013427489 -0.008690322 0.074695006 -0.02205122 -0.0601264 0.003506299 0.17518829 -0.052516356 0.124928184 0.040332966 0.103676334 0.04161342 0.061154105 -0.008896261 -0.09966046 -0.00021315776 0.094175965 -0.054268014 0.0145039875 -0.0102608465 0.16226509 -0.047984347 0.037886772 0.0025568043 0.009120926 -0.14184265 0.11080851 -0.057670396 -0.11790352 -0.06675155 -0.062965535 -0.07259635 -0.022981862 -0.035383217 -0.05657907 0.23011456 -0.003583236 -0.14583029 -0.012279429 0.12597814 0.016316326 0.028415563 0.1738169 -0.23562273 0.102583885 0.14532274 -0.14132327 -0.010933453 -0.015021338 0.013743396 0.1550652 -0.0039404994 -0.28602222 -0.34358254 0.12166887 -0.1139258 -0.2918169 -0.059511535 0.14171872 -0.030117886 -0.019270247 -0.05461817 -0.030627491 -0.099803336 0.032501273 -0.08843325 -0.0075823194 -0.009857851 0.08169326 0.0067182137 -0.08762672 -0.039427534 -0.07655263 0.19093356 0.07706518 0.09977529 -0.10820707 -0.13954584 -0.11227467 0.061475277 -0.12575291 -0.26114497 -0.065559566 0.019974884
22 0.039446715 -0.021205204 0.13066505 -0.111829996 -0.01484469 -0.18613873 -0.0013059999 0.0037366985 0.004734485 0.10555444 0.20102519 -0.0020500794 -0.0380163 -0.0355373 0.09983369 -0.035114188 0.052946974 0.085600495 0.033853408 0.07883713 0.09333432 0.06462659 -0.0047644507 0.09733713 -0.13760296 0.14191489 -0.06473636 0.084747635 0.048870575 -0.04912155 -0.17056869 0.0030717698 0.0044915434 0.07339793 -0.065731 0.08184687 0.21739188 0.063268766 0.1910957 -0.022231318 -0.054784257 0.13322978 -0.019051787 -0.05043452 0.023492567 0.0027412388 0.039871544 -0.03659486 -0.04406053 0.014557601 0.13530098 -0.032842226 0.1339729 0.05381623 0.09602766 0.06719214 0.051055986 0.0091927545 -0.09290168 -0.00599151 0.089224845 -0.07498606 0.01405714 -0.0034861732 0.16495487 -0.058890108 0.033100054 -0.011663563 0.0028658824 -0.14787006 0.099260844 -0.045568574 -0.11804549 -0.06261478 -0.05341274 -0.060858894 -0.028696505 -0.030730238 -0.052182775 0.21099915 -0.009147914 -0.1502971 -0.015709149 0.13246804 0.004262691 0.013941443 0.1691666 -0.21092835 0.1154914 0.14342806 -0.15202509 -0.01991023 -0.04089006 0.019861259 0.14302924 0.0016907413 -0.27411714 -0.30570102 0.10004616 -0.106989644 -0.27341014 -0.05574111 0.13363433 -0.0226537 -0.03632828 -0.033385463 -0.008980713 -0.11084033 0.015900552 -0.07250952 0.0041928585 -0.0093783075 0.0665522 -0.001788612 -0.08789668 -0.028471613 -0.07460112 0.17261069 0.073811725 0.094322346 -0.08958004 -0.13608024 -0.08784039 0.066155456 -0.12982008 -0.23516633 -0.070530295 0.025456617
27 -0.05481483 -0.0749986 0.15235211 -0.1142055 0.053084966 -0.11321344 0.003251527 0.0057388544 -0.06321951 0.13993193 0.3071574 -0.06852072 0.022216937 -0.13388819 -0.025796968 -0.18141581 0.18740717 0.15683152 -0.09300362 -0.03843073 0.16019195 0.17197856 0.078487754 0.0056334953 -0.09525278 0.052338358 -0.23495607 -0.042318266 0.04034904 -0.09526073 -0.27263945 0.11229794 -0.06668829 0.02908762 -0.013985545 -0.015806213 0.20029823 -0.07931514 0.09229325 0.0037899287 0.13755488 0.055093363 -0.08482837 -0.11483817 -0.11613373 0.060123324 -0.028464632 -0.23109345 0.034364183 0.0059835385 0.09469269 0.10777597 0.16901815 0.1314814 0.07508828 0.010991689 0.028401187 0.0737224 -0.08431939 0.12128544 0.19432598 -0.1913888 0.11432562 0.06138812 0.118428476 -0.14757875 0.08371493 0.121766865 -0.014004291 -0.14415541 0.057110015 -0.06459641 -0.12431771 -0.018120358 0.00073582877 -0.2039543 -0.059598207 -0.15355438 -0.028855568 0.16286388 0.08688794 -0.10297577 -0.004216825 0.32518256 0.111929476 0.1962349 0.12963392 -0.009508772 0.052578513 0.12303914 -0.066986926 0.028137771 -0.06801438 0.0886008 0.18867782 -0.020804733 -0.16051432 -0.21188715 -0.1116714 -0.08198601 -0.059783492 -0.043609783 0.09389905 0.0816177 0.053331625 -0.11341761 0.031865142 -0.06941281 0.1307338 -0.11149368 0.040432688 -0.03644334 0.08379079 0.07744635 -0.09306021 0.035546154 0.002335887 0.11286684 -0.004741842 0.02771206 -0.102498114 -0.032185286 0.102289185 0.013568421 -0.035406914 -0.056390744 -0.03466098 0.057977162
15 -0.039243605 -0.086494304 0.1515607 -0.109864146 0.03640158 -0.10869907 -0.0036669548 -0.013598073 -0.046609636 0.12483553 0.29893202 -0.069603235 0.023194095 -0.12964714 -0.015652215 -0.15521383 0.14647083 0.13292979 -0.06722532 -0.02809133 0.16244401 0.13392644 0.046162497 0.002784053 -0.12261489 0.048830178 -0.2249068 -0.031874865 0.049122788 -0.080702506 -0.24322376 0.10964229 -0.05682728 0.026622197 -0.002880206 -0.0021835768 0.22677101 -0.0391882 0.1277525 -0.013187327 0.1313618 0.067774855 -0.08409883 -0.10988961 -0.08983012 0.0461101 -0.005542657 -0.24930795 0.013254739 0.007954085 0.1316486 0.064028844 0.1617646 0.14355181 0.09160448 0.01164436 0.036193017 0.06442549 -0.12649068 0.10753483 0.19540179 -0.20468245 0.116062015 0.059068043 0.11865699 -0.14611125 0.077308 0.10989103 -0.0049976413 -0.16350605 0.06439208 -0.06806759 -0.128672 -0.004459452 0.0033361067 -0.1740304 -0.044018973 -0.1495163 -0.007189547 0.14932851 0.06558044 -0.0989882 0.013354686 0.28047112 0.106326394 0.18019162 0.111484356 -0.028263373 0.06437236 0.106692955 -0.08454579 0.031514756 -0.071750276 0.090739846 0.19304211 -0.021307593 -0.15111654 -0.197391 -0.08952045 -0.06758697 -0.08082807 -0.024864363 0.0916744 0.047663085 0.03833711 -0.09890111 0.03350663 -0.07429616 0.1279883 -0.110833116 0.029895486 -0.022865545 0.09255599 0.06653201 -0.07500239 0.032835606 0.006850103 0.12825209 -0.0020959435 0.048974637 -0.074862905 -0.03343918 0.07276824 0.026775101 -0.034725156 -0.06371128 -0.03499637 0.056574013
19 -0.041282866 -0.08567072 0.14638445 -0.118867256 0.038217902 -0.108927734 0.003564547 0.0021601112 -0.041967988 0.12514341 0.3054692 -0.07714569 0.031162849 -0.12632528 -0.011126271 -0.16651712 0.16982163 0.14445734 -0.09759546 -0.048966754 0.16355397 0.15483963 0.0469141 -0.011289849 -0.11063199 0.021960853 -0.23182367 -0.047891226 0.03749992 -0.06907726 -0.2556546 0.10376405 -0.057358854 0.02116517 -0.021589637 -0.01352969 0.21960787 -0.05761398 0.116978 -0.007112345 0.14561611 0.059461486 -0.074626856 -0.12540404 -0.12461192 0.05124185 -0.026476597 -0.26772973 0.036769256 0.0075962464 0.09949939 0.07287523 0.16415565 0.1501786 0.093303524 0.015062826 0.02798673 0.062389564 -0.121168435 0.13556346 0.19388752 -0.19802703 0.08903154 0.04830377 0.12291937 -0.15534708 0.06785697 0.108261645 -0.031484663 -0.16018997 0.069422506 -0.06456002 -0.13984291 -0.0048816446 0.008347503 -0.20845225 -0.050162036 -0.15477788 -0.012893945 0.1593273 0.08416812 -0.09870946 0.011163806 0.31064218 0.1061935 0.19834405 0.11279023 -0.011113689 0.06452565 0.10537058 -0.08657067 0.029607518 -0.092508264 0.10141281 0.2072665 -0.018467324 -0.1561797 -0.1873785 -0.13745022 -0.06634403 -0.059894294 -0.035573702 0.09701298 0.06992393 0.03835211 -0.10623018 0.04810334 -0.074693196 0.12581372 -0.11010355 0.033271544 -0.013452336 0.094079755 0.09377415 -0.072316684 0.048830733 -0.014911989 0.10689853 -0.014763336 0.023029312 -0.07891608 -0.027470298 0.093753904 0.028419338 -0.014364297 -0.03938158 -0.013978271 0.0590282
21 -0.047456548 -0.064560376 0.14348778 -0.10733421 0.04402692 -0.11544928 0.006027563 0.0062939036 -0.057112053 0.13468988 0.28761122 -0.07306524 0.017564023 -0.13867757 -0.010086483 -0.15272415 0.16601327 0.13360861 -0.072615005 -0.03145352 0.15005071 0.15082611 0.04885168 0.0037962454 -0.104943074 0.0331008 -0.21698472 -0.027042773 0.03350842 -0.07783233 -0.25373143 0.10048377 -0.060092133 0.011277109 -0.015593196 -0.010433514 0.20825857 -0.05478931 0.11089806 -0.017279748 0.14370295 0.04877755 -0.08063568 -0.09210738 -0.10196643 0.056856696 -0.014016618 -0.2213172 0.0132235885 0.010000481 0.11312335 0.089078605 0.16059658 0.116464466 0.09989329 0.0018493593 0.04634837 0.07139365 -0.09599637 0.11531128 0.16822453 -0.17913315 0.109436266 0.047875576 0.11129958 -0.15397698 0.07572283 0.10324689 -0.012341767 -0.13544104 0.0641975 -0.04484115 -0.13120438 -0.0031405103 -0.018129926 -0.19175236 -0.053982228 -0.14596464 -0.021572074 0.16427591 0.08049815 -0.09895758 -0.0011112943 0.29483765 0.112482004 0.18757756 0.1338194 -0.016330244 0.062740564 0.114090465 -0.08805575 0.021033918 -0.07702104 0.08615907 0.17602807 -0.022860955 -0.15833384 -0.19935453 -0.10752618 -0.068698846 -0.06970847 -0.025706798 0.095650084 0.07360682 0.049586773 -0.10928834 0.041903708 -0.08065131 0.11091594 -0.108531795 0.034422893 -0.026778756 0.06625329 0.06882908 -0.09517157 0.040772133 0.0039532203 0.12227435 -0.009434965 0.049307596 -0.09208702 -0.03819543 0.08710645 0.0147196725 -0.022870246 -0.065667704 -0.026386242 0.06820304
16 -0.03379058 -0.0883455 0.13345587 -0.11056345 0.03128503 -0.096642785 -0.01324666 0.005561879 -0.028350761 0.12277403 0.28504917 -0.069512546 0.025866725 -0.11304857 -0.0068030255 -0.1559189 0.15562457 0.14981678 -0.09161636 -0.042003866 0.16688628 0.14582267 0.036172584 -0.00846197 -0.12662555 0.032217827 -0.23207074 -0.05208327 0.0316228 -0.065745905 -0.2317658 0.09069047 -0.049270034 0.02541 -0.02023503 -0.014884143 0.2185593 -0.062373538 0.13172752 -0.0040746885 0.12159402 0.080983594 -0.08021399 -0.12726961 -0.12682843 0.04348749 -0.012135045 -0.24994648 0.015988134 -0.011340763 0.11316266 0.04930989 0.16923119 0.15650368 0.10482638 0.020317059 0.027787676 0.06057154 -0.13165984 0.121745 0.19945912 -0.20219988 0.075954445 0.05673229 0.14281638 -0.15281719 0.06261809 0.112966105 -0.023391703 -0.1791565 0.057081763 -0.0650467 -0.13494776 -0.00595841 0.006542928 -0.19827683 -0.050657474 -0.1337923 -0.019661753 0.14897308 0.068748355 -0.10267857 0.007819549 0.27590793 0.10021083 0.18146376 0.11065216 -0.020738356 0.060769353 0.116154134 -0.08366994 0.04338871 -0.103766836 0.09549687 0.22206359 -0.031501118 -0.15763807 -0.20049134 -0.111568935 -0.072782874 -0.0717039 -0.056207567 0.09921175 0.032406237 0.0100635765 -0.098575644 0.021636322 -0.056863215 0.12904492 -0.10914134 0.03572108 -0.022459013 0.097196326 0.10234894 -0.06744073 0.056716323 -0.032005135 0.10803428 -0.00018099204 0.027908957 -0.086021945 -0.042352553 0.086251885 0.028405549 -0.029475117 -0.05812465 -0.0048584808 0.040219825
12 0.10804162 0.009729079 0.1705437 -0.15281942 -0.0003874655 -0.18292066 0.030399116 0.039468054 0.006323906 0.049640115 0.16854341 -0.053323474 -0.05843436 0.033719018 0.18288848 -0.0482205 0.04575124 0.08646458 0.003456736 0.0809312 0.12283969 0.08513932 -0.023091897 0.105724685 -0.15999526 0.1673514 -0.04645142 0.046825733 0.053949337 0.014122843 -0.2161372 0.016596412 0.028878745 0.054586902 -0.118753836 -0.004523045 0.19882073 0.14026535 0.16484468 -0.068805255 -0.039134514 0.18861118 -0.00883967 -0.031855877 -0.010592761 0.024326887 -0.01894877 -0.075773485 -0.007994536 0.008879855 0.056052007 -0.036450148 0.16701263 0.094955906 0.088856705 0.09253707 0.048941504 0.049768876 -0.092846185 -0.046027895 0.074723855 -0.08356936 -0.041014437 -0.04912652 0.1841615 -0.091285154 -0.040105868 -0.06365016 -0.020729804 -0.14588371 0.09105789 -0.01623001 -0.11188965 -0.04918833 -0.08932635 -0.01874598 -0.06705278 0.011199224 -0.1134738 0.20211923 0.008409629 -0.15727954 -0.018054249 0.10397389 -0.0072683594 -0.041172553 0.16765128 -0.20278211 0.10133102 0.1467819 -0.2093498 -0.021281945 -0.13755639 0.0073597482 0.11656454 -0.01909254 -0.24121703 -0.19097215 0.045382183 -0.12147206 -0.23894471 -0.09864659 0.12745717 -0.011316073 -0.07177752 -0.008563657 0.018750085 -0.0871722 -0.011507278 -0.06698293 0.032039527 0.0075295437 0.03334501 -0.0068267356 -0.09721365 0.00054867385 -0.13157207 0.14155746 0.09281799 0.090897664 -0.07639208 -0.14428759 -0.0444498 0.06393926 -0.11707906 -0.2184847 -0.042183083 0.028917914
